digraph Tree {
node [shape=box] ;
0 [label="X[8] <= 0.5593\ngini = 0.4777\nsamples = 535\nvalue = [324, 211]"] ;
1 [label="X[11] <= 0.31\ngini = 0.4327\nsamples = 259\nvalue = [82, 177]"] ;
0 -> 1 [labeldistance=2.5, labelangle=45, headlabel="True"] ;
2 [label="X[8] <= 0.3964\ngini = 0.365\nsamples = 204\nvalue = [49, 155]"] ;
1 -> 2 ;
3 [label="X[8] <= 0.035\ngini = 0.2496\nsamples = 130\nvalue = [19, 111]"] ;
2 -> 3 ;
4 [label="gini = 0.0\nsamples = 35\nvalue = [0, 35]"] ;
3 -> 4 ;
5 [label="gini = 0.32\nsamples = 95\nvalue = [19, 76]"] ;
3 -> 5 ;
6 [label="X[11] <= 0.25\ngini = 0.4821\nsamples = 74\nvalue = [30, 44]"] ;
2 -> 6 ;
7 [label="gini = 0.4289\nsamples = 61\nvalue = [19, 42]"] ;
6 -> 7 ;
8 [label="gini = 0.2604\nsamples = 13\nvalue = [11, 2]"] ;
6 -> 8 ;
9 [label="X[16] <= 1.5\ngini = 0.48\nsamples = 55\nvalue = [33, 22]"] ;
1 -> 9 ;
10 [label="X[8] <= 0.2714\ngini = 0.32\nsamples = 30\nvalue = [24, 6]"] ;
9 -> 10 ;
11 [label="gini = 0.32\nsamples = 5\nvalue = [1, 4]"] ;
10 -> 11 ;
12 [label="gini = 0.1472\nsamples = 25\nvalue = [23, 2]"] ;
10 -> 12 ;
13 [label="X[0] <= 265.5\ngini = 0.4608\nsamples = 25\nvalue = [9, 16]"] ;
9 -> 13 ;
14 [label="gini = 0.3457\nsamples = 18\nvalue = [4, 14]"] ;
13 -> 14 ;
15 [label="gini = 0.4082\nsamples = 7\nvalue = [5, 2]"] ;
13 -> 15 ;
16 [label="X[8] <= 0.704\ngini = 0.216\nsamples = 276\nvalue = [242, 34]"] ;
0 -> 16 [labeldistance=2.5, labelangle=-45, headlabel="False"] ;
17 [label="X[15] <= 0.225\ngini = 0.4387\nsamples = 80\nvalue = [54, 26]"] ;
16 -> 17 ;
18 [label="X[6] <= 0.5\ngini = 0.4723\nsamples = 34\nvalue = [13, 21]"] ;
17 -> 18 ;
19 [label="gini = 0.4946\nsamples = 29\nvalue = [13, 16]"] ;
18 -> 19 ;
20 [label="gini = 0.0\nsamples = 5\nvalue = [0, 5]"] ;
18 -> 20 ;
21 [label="X[8] <= 0.684\ngini = 0.1938\nsamples = 46\nvalue = [41, 5]"] ;
17 -> 21 ;
22 [label="gini = 0.0887\nsamples = 43\nvalue = [41, 2]"] ;
21 -> 22 ;
23 [label="gini = 0.0\nsamples = 3\nvalue = [0, 3]"] ;
21 -> 23 ;
24 [label="X[11] <= -0.39\ngini = 0.0783\nsamples = 196\nvalue = [188, 8]"] ;
16 -> 24 ;
25 [label="X[16] <= 1.5\ngini = 0.4444\nsamples = 9\nvalue = [6, 3]"] ;
24 -> 25 ;
26 [label="gini = 0.48\nsamples = 5\nvalue = [2, 3]"] ;
25 -> 26 ;
27 [label="gini = 0.0\nsamples = 4\nvalue = [4, 0]"] ;
25 -> 27 ;
28 [label="X[9] <= 2.26\ngini = 0.052\nsamples = 187\nvalue = [182, 5]"] ;
24 -> 28 ;
29 [label="gini = 0.033\nsamples = 179\nvalue = [176, 3]"] ;
28 -> 29 ;
30 [label="gini = 0.375\nsamples = 8\nvalue = [6, 2]"] ;
28 -> 30 ;
}